{"learner":{"attributes":{"best_iteration":"19","best_ntree_limit":"20","best_score":"0.9642424242424242"},"feature_names":["host_response_rate","host_identity_verified","host_total_listings_count","is_location_exact","accommodates","bathrooms","bedrooms","beds","amenities","price","minimum_nights","number_of_reviews","review_scores_rating","instant_bookable","reviews_per_month","room_type_1","room_type_2","cancellation_policy_1","cancellation_policy_2","cancellation_policy_3"],"feature_types":["float","float","float","float","float","float","float","float","float","float","float","float","float","float","float","float","float","float","float","float"],"gradient_booster":{"model":{"gbtree_model_param":{"num_parallel_tree":"1","num_trees":"30","size_leaf_vector":"0"},"tree_info":[0,0,0,0,0,0,0,0,0,0,0,0,0,0,0,0,0,0,0,0,0,0,0,0,0,0,0,0,0,0],"trees":[{"base_weights":[-9.893475E-1,-1.5048459E0,5.4742545E-1,-1.7208766E0,-7.259259E-1,6.392694E-2,1.1052631E0,-7.3880595E-1,-0E0,-6.622516E-2,2.6804122E-1,-0E0,1.1448276E0,-0E0,-7.443609E-1,-1.6393442E-1,-0E0,2.9411766E-1,-0E0,-0E0,1.1743772E0,-2.3255815E-1,-0E0,3.5675675E-1,-0E0,1.1970803E0,-0E0],"categories":[],"categories_nodes":[],"categories_segments":[],"categories_sizes":[],"default_left":[1,1,1,0,1,1,1,1,0,1,1,0,1,0,0,1,0,1,0,0,1,0,0,0,0,0,0],"id":0,"left_children":[1,3,5,-1,7,9,11,13,-1,15,17,-1,19,-1,-1,21,-1,23,-1,-1,25,-1,-1,-1,-1,-1,-1],"loss_changes":[6.05343E2,6.977637E1,3.7999615E1,0E0,2.0010529E0,4.9448786E0,2.1785889E0,5.499344E-1,0E0,6.541092E-1,6.555486E-1,0E0,1.8654327E0,0E0,0E0,3.4311855E-1,0E0,4.1337013E-3,0E0,0E0,1.2744598E0,0E0,0E0,0E0,0E0,0E0,0E0],"parents":[2147483647,0,0,1,1,2,2,4,4,5,5,6,6,7,7,9,9,10,10,12,12,15,15,17,17,20,20],"right_children":[2,4,6,-1,8,10,12,14,-1,16,18,-1,20,-1,-1,22,-1,24,-1,-1,26,-1,-1,-1,-1,-1,-1],"split_conditions":[2.65E1,1.15E1,6.15E1,-3.4417532E-2,5.89E4,3.35E1,1.08E2,4.2E1,-0E0,2.4665E3,5.85E1,-0E0,5.3E3,-0E0,-1.4887218E-2,5E-1,-0E0,5E-1,-0E0,-0E0,3.495E4,-4.651163E-3,-0E0,7.1351347E-3,-0E0,2.3941604E-2,-0E0],"split_indices":[11,11,11,0,9,11,8,8,0,8,11,0,9,0,0,17,0,17,0,0,9,0,0,0,0,0,0],"split_type":[0,0,0,0,0,0,0,0,0,0,0,0,0,0,0,0,0,0,0,0,0,0,0,0,0,0,0],"sum_hessian":[7.5E2,5.665E2,1.835E2,4.325E2,1.34E2,1.085E2,7.5E1,1.33E2,1E0,3.675E1,7.175E1,3.5E0,7.15E1,1E0,1.32E2,2.95E1,7.25E0,6.7E1,4.75E0,2.25E0,6.925E1,2.05E1,9E0,4.525E1,2.175E1,6.75E1,1.75E0],"tree_param":{"num_deleted":"0","num_feature":"20","num_nodes":"27","size_leaf_vector":"0"}},{"base_weights":[-9.695548E-1,-7.968352E-1,-1.260452E0,-1.1704404E0,-6.2137514E-1,-1.2861055E0,-0E0,-6.331564E-1,-0E0,-6.422077E-1,-0E0],"categories":[],"categories_nodes":[],"categories_segments":[],"categories_sizes":[],"default_left":[1,1,1,0,1,0,0,1,0,0,0],"id":1,"left_children":[1,3,5,-1,7,-1,-1,9,-1,-1,-1],"loss_changes":[1.6148376E1,1.3830261E1,1.4554138E0,0E0,3.5793762E0,0E0,0E0,4.6875E-1,0E0,0E0,0E0],"parents":[2147483647,0,0,1,1,2,2,4,4,7,7],"right_children":[2,4,6,-1,8,-1,-1,10,-1,-1,-1],"split_conditions":[2.5E0,5E-1,6.5E0,-2.3408808E-2,3.5E0,-2.5722109E-2,-0E0,7.5E0,-0E0,-1.2844154E-2,-0E0],"split_indices":[10,1,4,0,6,0,0,4,0,0,0],"split_type":[0,0,0,0,0,0,0,0,0,0,0],"sum_hessian":[7.4985425E2,4.9441315E2,2.5544113E2,1.379704E2,3.5644275E2,2.4619276E2,9.248366E0,3.5219305E2,4.2496843E0,3.43444E2,8.7490425E0],"tree_param":{"num_deleted":"0","num_feature":"20","num_nodes":"11","size_leaf_vector":"0"}},{"base_weights":[-9.512367E-1,-1.456492E0,5.5290264E-1,-1.6675586E0,-6.941779E-1,7.768156E-2,1.0987133E0,-2.2748196E-1,-1.7398887E0,-0E0,-9.93107E-1,6.883267E-1,-1.1944148E-1,1.1253893E0,-0E0,-4.088221E-1,-0E0,-1.0168427E0,-0E0,-0E0,8.8213605E-1,-0E0,-1.7996027E-1,-0E0,-4.5621607E-1,9.236546E-1,-0E0,-2.030829E-1,-0E0],"categories":[],"categories_nodes":[],"categories_segments":[],"categories_sizes":[],"default_left":[1,1,1,1,1,1,1,1,0,0,1,1,1,0,0,1,0,0,0,0,1,0,1,0,0,0,0,0,0],"id":2,"left_children":[1,3,5,7,9,11,13,15,-1,-1,17,19,21,-1,-1,23,-1,-1,-1,-1,25,-1,27,-1,-1,-1,-1,-1,-1],"loss_changes":[5.802977E2,6.647656E1,3.600399E1,2.5050049E1,2.5921936E1,1.8950954E1,1.6594391E0,1.240186E0,0E0,0E0,2.6504517E-1,6.888294E0,9.023169E-1,0E0,0E0,3.53765E-1,0E0,0E0,0E0,0E0,1.1756668E0,0E0,7.109296E-2,0E0,0E0,0E0,0E0,0E0,0E0],"parents":[2147483647,0,0,1,1,2,2,3,3,4,4,5,5,6,6,7,7,10,10,11,11,12,12,15,15,20,20,22,22],"right_children":[2,4,6,8,10,12,14,16,-1,-1,18,20,22,-1,-1,24,-1,-1,-1,-1,26,-1,28,-1,-1,-1,-1,-1,-1],"split_conditions":[2.65E1,1.15E1,6.15E1,7.9E1,9.15E1,9.15E1,9.85E1,3.5E0,-3.4797773E-2,-0E0,2.55E1,3.05E1,9.35E1,2.2507787E-2,-0E0,3E1,-0E0,-2.0336853E-2,-0E0,-0E0,5.85E1,-0E0,5.25E1,-0E0,-9.124321E-3,1.8473092E-2,-0E0,-4.061658E-3,-0E0],"split_indices":[11,11,11,12,12,12,12,11,0,0,11,11,12,0,0,12,0,0,0,0,11,0,11,0,0,0,0,0,0],"split_type":[0,0,0,0,0,0,0,0,0,0,0,0,0,0,0,0,0,0,0,0,0,0,0,0,0,0,0,0,0],"sum_hessian":[7.4962604E2,5.661355E2,1.834905E2,4.32172E2,1.3396353E2,1.0849277E2,7.499773E1,2.7478638E1,4.0469336E2,4.2737938E1,9.12256E1,3.824763E1,7.024514E1,7.274782E1,2.2499146E0,1.523772E1,1.2240918E1,8.722664E1,3.9989607E0,6.499299E0,3.1748333E1,1.1999263E1,5.8245872E1,1.498765E0,1.3738955E1,3.0248457E1,1.499876E0,4.724644E1,1.0999432E1],"tree_param":{"num_deleted":"0","num_feature":"20","num_nodes":"29","size_leaf_vector":"0"}},{"base_weights":[-9.33328E-1,-1.429709E0,5.420857E-1,-1.6367078E0,-6.8122536E-1,7.43312E-2,1.077381E0,-7.170956E-1,-0E0,-4.7244005E-2,2.738543E-1,-5.1666137E-2,-0E0,3.9433494E-1,-0E0,4.306376E-1,-0E0],"categories":[],"categories_nodes":[],"categories_segments":[],"categories_sizes":[],"default_left":[1,1,1,0,1,1,0,0,0,1,1,0,0,1,0,0,0],"id":3,"left_children":[1,3,5,-1,7,9,-1,-1,-1,11,13,-1,-1,15,-1,-1,-1],"loss_changes":[5.589724E2,6.348999E1,3.4592846E1,0E0,1.7558022E0,4.934993E0,0E0,0E0,0E0,9.836718E-3,9.1949415E-1,0E0,0E0,8.1059694E-1,0E0,0E0,0E0],"parents":[2147483647,0,0,1,1,2,2,4,4,5,5,9,9,10,10,13,13],"right_children":[2,4,6,-1,8,10,-1,-1,-1,12,14,-1,-1,16,-1,-1,-1],"split_conditions":[2.65E1,1.15E1,6.15E1,-3.2734156E-2,2.5E0,3.35E1,2.154762E-2,-1.4341912E-2,-0E0,2.5E0,5E-1,-1.0333228E-3,-0E0,3.5E0,-0E0,8.612752E-3,-0E0],"split_indices":[11,11,11,0,6,11,0,0,0,6,15,0,0,6,0,0,0],"split_type":[0,0,0,0,0,0,0,0,0,0,0,0,0,0,0,0,0],"sum_hessian":[7.4906213E2,5.655874E2,1.8347476E2,4.3166122E2,1.339262E2,1.0849192E2,7.4982834E1,1.2417981E2,9.746384E0,3.674551E1,7.174641E1,3.424571E1,2.4997997E0,3.9998035E1,3.1748373E1,3.774813E1,2.2499056E0],"tree_param":{"num_deleted":"0","num_feature":"20","num_nodes":"17","size_leaf_vector":"0"}},{"base_weights":[-9.156625E-1,-1.0054805E0,-2.6912686E-1,-2.959144E-1,-0E0],"categories":[],"categories_nodes":[],"categories_segments":[],"categories_sizes":[],"default_left":[1,0,1,0,0],"id":4,"left_children":[1,-1,3,-1,-1],"loss_changes":[3.0492676E1,0E0,9.754572E-1,0E0,0E0],"parents":[2147483647,0,0,2,2],"right_children":[2,-1,4,-1,-1],"split_conditions":[5E-1,-2.010961E-2,2.5E0,-5.918288E-3,-0E0],"split_indices":[13,0,6,0,0],"split_type":[0,0,0,0,0],"sum_hessian":[7.482496E2,6.429126E2,1.0533695E2,9.80959E1,7.241055E0],"tree_param":{"num_deleted":"0","num_feature":"20","num_nodes":"5","size_leaf_vector":"0"}},{"base_weights":[-8.9836437E-1,-1.386454E0,5.4790205E-1,-1.5899016E0,-6.5087676E-1,8.8261366E-2,1.0713855E0,-0E0,-6.621114E-1,-2.9919278E-2,2.8583446E-1,-0E0,1.1100196E0,-1.268764E-1,-0E0,-0E0,3.7151524E-1,1.1392847E0,-0E0,-0E0,-1.5107964E-1,4.0698212E-1,-0E0],"categories":[],"categories_nodes":[],"categories_segments":[],"categories_sizes":[],"default_left":[1,1,1,0,1,1,1,0,0,1,1,0,1,1,0,0,1,0,0,0,0,0,0],"id":5,"left_children":[1,3,5,-1,7,9,11,-1,-1,13,15,-1,17,19,-1,-1,21,-1,-1,-1,-1,-1,-1],"loss_changes":[5.376196E2,6.1139526E1,3.2690346E1,0E0,7.844238E-1,5.1238823E0,2.0906525E0,0E0,0E0,4.5700705E-1,3.0273142E0,0E0,2.296753E-1,1.7658871E-1,0E0,0E0,1.0078506E0,0E0,0E0,0E0,0E0,0E0,0E0],"parents":[2147483647,0,0,1,1,2,2,4,4,5,5,6,6,9,9,10,10,12,12,13,13,16,16],"right_children":[2,4,6,-1,8,10,12,-1,-1,14,16,-1,18,20,-1,-1,22,-1,-1,-1,-1,-1,-1],"split_conditions":[2.65E1,1.15E1,6.15E1,-3.179803E-2,8E1,3.35E1,1.08E2,-0E0,-1.3242228E-2,2.4665E3,9.05E1,-0E0,2.9275E3,1.18E2,-0E0,-0E0,5.85E1,2.2785693E-2,-0E0,-0E0,-3.0215927E-3,8.139642E-3,-0E0],"split_indices":[11,11,11,0,8,11,8,0,0,8,0,0,8,8,0,0,11,0,0,0,0,0,0],"split_type":[0,0,0,0,0,0,0,0,0,0,0,0,0,0,0,0,0,0,0,0,0,0,0],"sum_hessian":[7.476453E2,5.6419507E2,1.8345026E2,4.3039835E2,1.337967E2,1.0847554E2,7.497471E1,2.7463121E0,1.310504E2,3.6735912E1,7.173963E1,3.4997687E0,7.1474945E1,2.9488165E1,7.247748E0,7.749007E0,6.3990623E1,6.797633E1,3.4986103E0,1.2494391E0,2.8238726E1,5.9241634E1,4.748986E0],"tree_param":{"num_deleted":"0","num_feature":"20","num_nodes":"23","size_leaf_vector":"0"}},{"base_weights":[-8.8175875E-1,-1.3660705E0,-6.1209913E-2,-0E0,-1.3721207E0,-3.5301712E-1,6.080751E-2,-1.4341621E0,-5.715203E-1,-4.318244E-1,-0E0,-4.6771474E-2,3.4371892E-1,-6.600071E-1,-0E0,-0E0,-4.453234E-1,-2.3876584E-1,-0E0,4.8600346E-1,-0E0,-6.7231154E-1,-0E0,-4.5481387E-1,-0E0,-0E0,-3.2805085E-1,3.6039844E-3,-0E0,5.458148E-1,-0E0],"categories":[],"categories_nodes":[],"categories_segments":[],"categories_sizes":[],"default_left":[1,1,1,0,1,1,1,0,1,1,0,1,1,1,0,0,1,1,1,1,0,0,0,0,0,0,0,0,0,0,0],"id":6,"left_children":[1,3,5,-1,7,9,11,-1,13,15,-1,17,19,21,-1,-1,23,25,27,29,-1,-1,-1,-1,-1,-1,-1,-1,-1,-1,-1],"loss_changes":[2.826933E2,3.4397583E0,1.3131921E1,0E0,1.9765625E0,2.5834732E0,8.417117E0,0E0,2.6616173E0,3.8126373E-1,0E0,2.672226E0,4.0669203E0,1.0791397E-1,0E0,0E0,4.0149307E-1,1.152425E0,6.713046E-4,2.630557E0,0E0,0E0,0E0,0E0,0E0,0E0,0E0,0E0,0E0,0E0,0E0],"parents":[2147483647,0,0,1,1,2,2,4,4,5,5,6,6,8,8,9,9,11,11,12,12,13,13,16,16,17,17,18,18,19,19],"right_children":[2,4,6,-1,8,10,12,-1,14,16,-1,18,20,22,-1,-1,24,26,28,30,-1,-1,-1,-1,-1,-1,-1,-1,-1,-1,-1],"split_conditions":[1.325E0,2.5E-1,2.315E0,-0E0,1.005E0,1.25E0,2.5E0,-2.8683241E-2,1.7E1,1.355E0,-0E0,3.835E0,1.885E4,6E0,-0E0,-0E0,3.37E4,2.625E0,9.93E0,2.1E1,-0E0,-1.344623E-2,-0E0,-9.096277E-3,-0E0,-0E0,-6.5610167E-3,7.207969E-5,-0E0,1.0916296E-2,-0E0],"split_indices":[14,5,14,0,14,5,2,0,2,14,0,14,9,10,0,0,9,14,14,2,0,0,0,0,0,0,0,0,0,0,0],"split_type":[0,0,0,0,0,0,0,0,0,0,0,0,0,0,0,0,0,0,0,0,0,0,0,0,0,0,0,0,0,0,0],"sum_hessian":[7.4648016E2,4.6133502E2,2.8514514E2,2.2412193E0,4.590938E2,1.0768251E2,1.7746262E2,4.1374893E2,4.534489E1,8.548793E1,2.2194578E1,1.0356808E2,7.389455E1,3.986116E1,5.4837313E0,3.241368E0,8.224657E1,4.9886166E1,5.368191E1,5.367907E1,2.0215473E1,3.8617943E1,1.2432194E0,8.074957E1,1.4969914E0,1.32212305E1,3.6664936E1,5.0683727E1,2.9981844E0,5.118194E1,2.4971323E0],"tree_param":{"num_deleted":"0","num_feature":"20","num_nodes":"31","size_leaf_vector":"0"}},{"base_weights":[-8.659228E-1,-1.3424958E0,5.395734E-1,-1.5538435E0,-6.644958E-1,8.952234E-2,1.0495751E0,-7.045763E-1,-0E0,-2.104305E-2,2.8311926E-1,-0E0,1.0873084E0,-0E0,-7.42315E-1,-1.17530465E-1,-0E0,-0E0,3.6736846E-1,1.1155823E0,-0E0,-0E0,-1.4189093E-1,4.0228432E-1,-0E0],"categories":[],"categories_nodes":[],"categories_segments":[],"categories_sizes":[],"default_left":[1,1,1,0,1,1,1,1,0,1,1,0,1,0,0,1,0,0,1,0,0,0,0,0,0],"id":7,"left_children":[1,3,5,-1,7,9,11,13,-1,15,17,-1,19,-1,-1,21,-1,-1,23,-1,-1,-1,-1,-1,-1],"loss_changes":[5.086986E2,5.7456787E1,3.0839329E1,0E0,4.3380356E0,4.969846E0,1.9852142E0,1.0163345E0,0E0,4.043402E-1,2.9406266E0,0E0,1.5768433E-1,0E0,0E0,1.6748145E-1,0E0,0E0,9.779835E-1,0E0,0E0,0E0,0E0,0E0,0E0],"parents":[2147483647,0,0,1,1,2,2,4,4,5,5,6,6,7,7,9,9,10,10,12,12,15,15,18,18],"right_children":[2,4,6,-1,8,10,12,14,-1,16,18,-1,20,-1,-1,22,-1,-1,24,-1,-1,-1,-1,-1,-1],"split_conditions":[2.65E1,1.05E1,6.15E1,-3.1076869E-2,6.5E0,3.35E1,1.08E2,1.5E0,-0E0,2.4665E3,9.05E1,-0E0,2.9275E3,-0E0,-1.48463E-2,1.18E2,-0E0,-0E0,5.85E1,2.2311646E-2,-0E0,-0E0,-2.8378186E-3,8.045686E-3,-0E0],"split_indices":[11,11,11,0,4,11,8,4,0,8,0,0,8,0,0,8,0,0,11,0,0,0,0,0,0],"split_type":[0,0,0,0,0,0,0,0,0,0,0,0,0,0,0,0,0,0,0,0,0,0,0,0,0],"sum_hessian":[7.4538544E2,5.6198755E2,1.8339792E2,4.1620578E2,1.4578172E2,1.0846568E2,7.4932236E1,1.382956E2,7.486129E0,3.672768E1,7.1738E1,3.499571E0,7.143266E1,1.1958888E1,1.2633671E2,2.9480988E1,7.2466946E0,7.74779E0,6.3990208E1,6.793434E1,3.4983225E0,1.2490375E0,2.823195E1,5.924145E1,4.7487583E0],"tree_param":{"num_deleted":"0","num_feature":"20","num_nodes":"25","size_leaf_vector":"0"}},{"base_weights":[-8.5041E-1,-1.3196797E0,5.2936137E-1,-1.5151856E0,-6.136348E-1,8.589989E-2,1.030355E0,-0E0,-6.366725E-1,-1.892054E-2,2.7655876E-1,-7.162465E-1,-0E0,-2.1666443E-2,-0E0,3.0115238E-1,-0E0],"categories":[],"categories_nodes":[],"categories_segments":[],"categories_sizes":[],"default_left":[1,1,1,0,1,1,0,0,1,1,1,0,0,0,0,0,0],"id":8,"left_children":[1,3,5,-1,7,9,-1,-1,11,13,15,-1,-1,-1,-1,-1,-1],"loss_changes":[4.9088666E2,5.529126E1,2.970486E1,0E0,3.2687721E0,4.7692814E0,0E0,0E0,1.5383072E0,3.5008145E-3,6.0281134E-1,0E0,0E0,0E0,0E0,0E0,0E0],"parents":[2147483647,0,0,1,1,2,2,4,4,5,5,8,8,9,9,10,10],"right_children":[2,4,6,-1,8,10,-1,-1,12,14,16,-1,-1,-1,-1,-1,-1],"split_conditions":[2.65E1,1.15E1,6.15E1,-3.0303711E-2,7.5E-1,3.35E1,2.0607099E-2,-0E0,1.25E0,2.25E0,5.85E1,-1.432493E-2,-0E0,-4.3332885E-4,-0E0,6.0230475E-3,-0E0],"split_indices":[11,11,11,0,5,11,0,0,5,5,11,0,0,0,0,0,0],"split_type":[0,0,0,0,0,0,0,0,0,0,0,0,0,0,0,0,0],"sum_hessian":[7.438587E2,5.6051483E2,1.8334384E2,4.2697488E2,1.3353998E2,1.084657E2,7.487814E1,1.4963347E0,1.3204364E2,3.6725708E1,7.173999E1,1.0712244E2,2.4921198E1,3.5226807E1,1.4989024E0,6.6991234E1,4.7487583E0],"tree_param":{"num_deleted":"0","num_feature":"20","num_nodes":"17","size_leaf_vector":"0"}},{"base_weights":[-8.355264E-1,-1.2977545E0,5.190782E-1,-1.5031761E0,-6.3983566E-1,8.235296E-2,1.0109309E0,-6.7906064E-1,-0E0,-1.85161E-2,2.710086E-1,-0E0,1.0374556E0,-0E0,-7.020539E-1,-0E0,-3.596927E-2,-0E0,3.5453165E-1,1.0545464E0,-0E0,-7.8228074E-1,-0E0,-5.3097244E-2,-0E0,-0E0,3.8704032E-1],"categories":[],"categories_nodes":[],"categories_segments":[],"categories_sizes":[],"default_left":[1,1,1,0,1,1,1,1,0,1,1,0,1,0,1,0,1,0,1,0,0,0,0,0,0,0,0],"id":9,"left_children":[1,3,5,-1,7,9,11,13,-1,15,17,-1,19,-1,21,-1,23,-1,25,-1,-1,-1,-1,-1,-1,-1,-1],"loss_changes":[4.737697E2,5.3274536E1,2.8567333E1,0E0,4.1303062E0,4.6130314E0,1.701355E0,3.6783447E0,0E0,3.3612326E-2,2.8265772E0,0E0,4.0945435E-1,0E0,2.5164337E0,0E0,5.1361248E-2,0E0,9.30254E-1,0E0,0E0,0E0,0E0,0E0,0E0,0E0,0E0],"parents":[2147483647,0,0,1,1,2,2,4,4,5,5,6,6,7,7,9,9,10,10,12,12,14,14,16,16,18,18],"right_children":[2,4,6,-1,8,10,12,14,-1,16,18,-1,20,-1,22,-1,24,-1,26,-1,-1,-1,-1,-1,-1,-1,-1],"split_conditions":[2.65E1,1.05E1,6.15E1,-3.0063521E-2,6.5E0,3.35E1,5.3E3,7.5E-1,-0E0,8.95E1,9.05E1,-0E0,3.495E4,-0E0,1.25E0,-0E0,2.25E0,-0E0,1.5E0,2.1090927E-2,-0E0,-1.5645614E-2,-0E0,-1.0619449E-3,-0E0,-0E0,7.7408063E-3],"split_indices":[11,11,11,0,4,11,9,5,0,0,0,0,9,0,5,0,5,0,4,0,0,0,0,0,0,0,0],"split_type":[0,0,0,0,0,0,0,0,0,0,0,0,0,0,0,0,0,0,0,0,0,0,0,0,0,0,0],"sum_hessian":[7.4214374E2,5.588671E2,1.8327655E2,4.1332938E2,1.4553778E2,1.08466156E2,7.48104E1,1.3805469E2,7.4830933E0,3.6725334E1,7.1740814E1,2.2462268E0,7.256417E1,1.4963347E0,1.3655836E2,1.7485846E0,3.497675E1,7.7483764E0,6.399244E1,7.056721E1,1.9969652E0,1.1390259E2,2.2655773E1,3.3727398E1,1.2493538E0,4.2493367E0,5.9743103E1],"tree_param":{"num_deleted":"0","num_feature":"20","num_nodes":"27","size_leaf_vector":"0"}},{"base_weights":[-8.2111263E-1,-3.8317704E-1,-1.6495612E0,-4.526436E-1,-0E0,-0E0,-4.8930743E-1,1.7422701E-1,-2.4694163E-1,-4.952565E-1,-0E0,3.4782878E-1,-0E0,-0E0,-3.0732024E-1,-0E0,-5.0116736E-1,-0E0,4.0568945E-1,-0E0,-3.249868E-1],"categories":[],"categories_nodes":[],"categories_segments":[],"categories_sizes":[],"default_left":[1,1,0,1,1,0,1,1,1,1,0,1,0,0,1,0,0,0,0,0,0],"id":10,"left_children":[1,3,-1,5,7,-1,9,11,13,15,-1,17,-1,-1,19,-1,-1,-1,-1,-1,-1],"loss_changes":[2.4797061E2,1.0711929E1,0E0,6.417862E0,4.253045E0,0E0,1.8883896E0,1.7108517E0,1.3665111E0,1.8866425E0,0E0,8.0736566E-1,0E0,0E0,3.1176996E-1,0E0,0E0,0E0,0E0,0E0,0E0],"parents":[2147483647,0,0,1,1,3,3,4,4,6,6,7,7,8,8,9,9,11,11,14,14],"right_children":[2,4,-1,6,8,-1,10,12,14,16,-1,18,-1,-1,20,-1,-1,-1,-1,-1,-1],"split_conditions":[9.95E1,5E-1,-3.2991223E-2,7.95E1,1.5E0,-0E0,6.895E4,9.25E1,7.95E1,7.5E-1,-0E0,5.2E3,-0E0,-0E0,6.05E3,-0E0,-1.0023347E-2,-0E0,8.113788E-3,-0E0,-6.4997356E-3],"split_indices":[12,13,0,12,10,0,9,12,12,5,0,9,0,0,9,0,0,0,0,0,0],"split_type":[0,0,0,0,0,0,0,0,0,0,0,0,0,0,0,0,0,0,0,0,0],"sum_hessian":[7.4024786E2,4.9311172E2,2.471361E2,4.0537045E2,8.774128E1,3.1811506E1,3.7355896E2,3.8816772E1,4.892451E1,3.7231348E2,1.2454705E0,2.313105E1,1.5685722E1,3.2213373E0,4.570317E1,1.2424732E0,3.71071E2,1.4869343E0,2.1644117E1,1.9877123E0,4.371546E1],"tree_param":{"num_deleted":"0","num_feature":"20","num_nodes":"21","size_leaf_vector":"0"}},{"base_weights":[-8.0659986E-1,-1.2609581E0,5.1627094E-1,-1.4497706E0,-5.816156E-1,8.658722E-2,9.982785E-1,-1.4601146E0,-0E0,-0E0,-6.4410377E-1,-9.698972E-3,2.7280575E-1,-5.6678377E-2,-0E0,-0E0,3.0703935E-1,-0E0,-1.1846813E-1,3.3531222E-1,-0E0],"categories":[],"categories_nodes":[],"categories_segments":[],"categories_sizes":[],"default_left":[1,1,1,1,1,1,0,0,0,0,0,1,1,1,0,0,1,0,0,0,0],"id":11,"left_children":[1,3,5,7,9,11,-1,-1,-1,-1,-1,13,15,17,-1,-1,19,-1,-1,-1,-1],"loss_changes":[4.5273404E2,5.0230835E1,2.7215866E1,1.734314E0,5.95335E0,4.5962243E0,0E0,0E0,0E0,0E0,0E0,7.989311E-2,1.0905323E0,2.390735E-1,0E0,0E0,7.190113E-1,0E0,0E0,0E0,0E0],"parents":[2147483647,0,0,1,1,2,2,3,3,4,4,5,5,11,11,12,12,13,13,16,16],"right_children":[2,4,6,8,10,12,-1,-1,-1,-1,-1,14,16,18,-1,-1,20,-1,-1,-1,-1],"split_conditions":[2.65E1,1.15E1,6.15E1,3.9650002E0,4.15E-1,3.35E1,1.996557E-2,-2.9202292E-2,-0E0,-0E0,-1.2882075E-2,5E-1,8.4000003E-1,9.85E-1,-0E0,-0E0,5.85E1,-0E0,-2.3693624E-3,6.7062443E-3,-0E0],"split_indices":[11,11,11,14,14,11,0,0,0,0,0,17,14,14,0,0,11,0,0,0,0],"split_type":[0,0,0,0,0,0,0,0,0,0,0,0,0,0,0,0,0,0,0,0,0],"sum_hessian":[7.3875684E2,5.555512E2,1.832056E2,4.2231982E2,1.3323137E2,1.0845237E2,7.4753235E1,4.1715668E2,5.1631536E0,1.0431781E1,1.2279959E2,3.6715706E1,7.1736664E1,2.497436E1,1.1741346E1,3.7476628E0,6.7989E1,2.9945593E0,2.1979801E1,6.32404E1,4.7485995E0],"tree_param":{"num_deleted":"0","num_feature":"20","num_nodes":"21","size_leaf_vector":"0"}},{"base_weights":[-7.928706E-1,-1.0282226E0,-5.7598907E-1,-2.652534E-1,-9.620454E-1,-4.5895216E-1,-2.5875684E-2,-9.724979E-1,-0E0,-4.7163135E-1,-0E0,-0E0,-3.2765934E-1,-0E0,6.702878E-2],"categories":[],"categories_nodes":[],"categories_segments":[],"categories_sizes":[],"default_left":[1,0,1,1,1,1,1,0,0,0,0,1,0,0,0],"id":12,"left_children":[1,-1,3,5,7,9,11,-1,-1,-1,-1,13,-1,-1,-1],"loss_changes":[2.1015015E1,0E0,3.644557E1,6.356991E0,8.357544E-1,2.5868225E-1,3.5286624E0,0E0,0E0,0E0,0E0,4.0818545E-1,0E0,0E0,0E0],"parents":[2147483647,0,0,2,2,3,3,4,4,5,5,6,6,11,11],"right_children":[2,-1,4,6,8,10,12,-1,-1,-1,-1,14,-1,-1,-1],"split_conditions":[1.5E0,-2.056445E-2,2.5E0,3.5E0,6.85E4,3.825E4,2.05E1,-1.9449957E-2,-0E0,-9.432627E-3,-0E0,8.05E1,-6.5531866E-3,-0E0,1.3405756E-3],"split_indices":[2,0,10,2,9,9,2,0,0,0,0,0,0,0,0],"split_type":[0,0,0,0,0,0,0,0,0,0,0,0,0,0,0],"sum_hessian":[7.3659375E2,3.29348E2,4.0724573E2,2.4091994E2,1.6632579E2,1.09567924E2,1.3135202E2,1.6363193E2,2.6938598E0,1.0486584E2,4.702086E0,9.865924E1,3.269278E1,8.807178E0,8.985206E1],"tree_param":{"num_deleted":"0","num_feature":"20","num_nodes":"15","size_leaf_vector":"0"}},{"base_weights":[-7.7936363E-1,-0E0,-7.8440315E-1],"categories":[],"categories_nodes":[],"categories_segments":[],"categories_sizes":[],"default_left":[1,0,0],"id":13,"left_children":[1,-1,-1],"loss_changes":[3.976654E0,0E0,0E0],"parents":[2147483647,0,0],"right_children":[2,-1,-1],"split_conditions":[2.5E-1,-0E0,-1.5688062E-2],"split_indices":[5,0,0],"split_type":[0,0,0],"sum_hessian":[7.352301E2,2.9665797E0,7.3226355E2],"tree_param":{"num_deleted":"0","num_feature":"20","num_nodes":"3","size_leaf_vector":"0"}},{"base_weights":[-7.651546E-1,-1.2142551E0,-1.4133525E-2,-1.2724215E0,-4.5812836E-1,-2.6951236E-1,8.445884E-2,-0E0,-4.8112267E-1,-3.038249E-1,-0E0,-0E0,3.1006247E-1,-4.9416322E-1,-0E0,-0E0,-3.3622217E-1,-3.5471093E-2,7.723814E-2,4.2497808E-1,-0E0,-3.4954432E-1,-0E0,-0E0,-8.0712125E-2,9.821389E-2,-0E0,5.0174487E-1,-0E0],"categories":[],"categories_nodes":[],"categories_segments":[],"categories_sizes":[],"default_left":[1,1,1,0,1,1,1,0,1,1,0,1,1,0,0,0,1,1,1,1,0,0,0,0,0,0,0,0,0],"id":14,"left_children":[1,3,5,-1,7,9,11,-1,13,15,-1,17,19,-1,-1,-1,21,23,25,27,-1,-1,-1,-1,-1,-1,-1,-1,-1],"loss_changes":[2.3556952E2,1.9711914E0,9.032869E0,0E0,3.1138515E-1,1.5700517E0,3.1386733E0,0E0,1.2406349E-1,1.4672356E0,0E0,3.998765E-1,3.3785834E0,0E0,0E0,0E0,4.861927E-1,3.5291055E-1,1.3535732E-1,2.124669E0,0E0,0E0,0E0,0E0,0E0,0E0,0E0,0E0,0E0],"parents":[2147483647,0,0,1,1,2,2,4,4,5,5,6,6,8,8,9,9,11,11,12,12,16,16,17,17,18,18,19,19],"right_children":[2,4,6,-1,8,10,12,-1,14,16,-1,18,20,-1,-1,-1,22,24,26,28,-1,-1,-1,-1,-1,-1,-1,-1,-1],"split_conditions":[1.325E0,1.005E0,2.315E0,-2.5448428E-2,5E-1,2.5E0,5.435E0,-0E0,4.085E4,1.365E0,-0E0,5E-1,2.825E4,-9.883264E-3,-0E0,-0E0,3.265E4,2.625E0,4.925E0,9.93E0,-0E0,-6.9908863E-3,-0E0,-0E0,-1.6142424E-3,1.9642778E-3,-0E0,1.0034897E-2,-0E0],"split_indices":[14,14,14,0,6,6,14,0,9,14,0,17,9,0,0,0,9,14,14,14,0,0,0,0,0,0,0,0,0],"split_type":[0,0,0,0,0,0,0,0,0,0,0,0,0,0,0,0,0,0,0,0,0,0,0,0,0,0,0,0,0],"sum_hessian":[7.339018E2,4.505481E2,2.833537E2,4.0544998E2,4.5098118E1,1.0669114E2,1.7666255E2,2.955842E0,4.2142273E1,1.0074896E2,5.942173E0,1.3183301E2,4.4829533E1,4.040339E1,1.7388866E0,5.6845155E0,9.506445E1,8.365906E1,4.8173954E1,4.210245E1,2.7270832E0,9.186069E1,3.203761E0,1.4134504E1,6.952456E1,4.344509E1,4.7288637E0,3.836177E1,3.7406793E0],"tree_param":{"num_deleted":"0","num_feature":"20","num_nodes":"29","size_leaf_vector":"0"}},{"base_weights":[-7.5220853E-1,-6.562743E-1,-1.1616784E0,-0E0,-6.6367906E-1,-0E0,-6.646982E-1],"categories":[],"categories_nodes":[],"categories_segments":[],"categories_sizes":[],"default_left":[1,1,0,0,1,0,0],"id":15,"left_children":[1,3,-1,-1,5,-1,-1],"loss_changes":[9.850189E0,4.3907166E0,0E0,0E0,2.8625488E-1,0E0,0E0],"parents":[2147483647,0,0,1,1,4,4],"right_children":[2,4,-1,-1,6,-1,-1],"split_conditions":[3.5E0,7.5E-1,-2.3233568E-2,-0E0,1.05E1,-0E0,-1.3293963E-2],"split_indices":[10,5,0,0,8,0,0],"split_type":[0,0,0,0,0,0,0],"sum_hessian":[7.319557E2,6.1491296E2,1.1704271E2,3.6988106E0,6.112141E2,1.227871E0,6.0998627E2],"tree_param":{"num_deleted":"0","num_feature":"20","num_nodes":"7","size_leaf_vector":"0"}},{"base_weights":[-7.389338E-1,-1.1882046E0,5.486979E-1,-1.3882709E0,-5.549016E-1,-0E0,7.7212465E-1,-8.184557E-1,-0E0,-7.768785E-3,-0E0,3.5494408E-1,1.0980964E0,-8.266978E-1,-0E0,-0E0,-6.278554E-2,-6.8290606E-2,-0E0,3.8586098E-1,-0E0,-0E0,1.1347494E0,-0E0,1.403272E-1,-0E0,-9.2423916E-2,-0E0,-1.396915E-1,5.5769587E-1,-0E0],"categories":[],"categories_nodes":[],"categories_segments":[],"categories_sizes":[],"default_left":[1,1,1,0,1,1,1,1,1,1,0,1,1,0,0,1,1,1,0,1,0,0,0,0,0,0,0,0,0,0,0],"id":16,"left_children":[1,3,5,-1,7,9,11,13,15,17,-1,19,21,-1,-1,23,25,27,-1,29,-1,-1,-1,-1,-1,-1,-1,-1,-1,-1,-1],"loss_changes":[4.3020792E2,4.927539E1,2.6095005E1,0E0,2.0334656E1,8.877657E-4,3.6774979E0,4.7437286E-1,5.3621765E-2,5.2569423E-2,0E0,7.4884605E-1,9.59877E-1,0E0,0E0,4.5254016E-1,3.945804E-2,1.459153E-1,0E0,9.2043304E-1,0E0,0E0,0E0,0E0,0E0,0E0,0E0,0E0,0E0,0E0,0E0],"parents":[2147483647,0,0,1,1,2,2,4,4,5,5,6,6,7,7,8,8,9,9,11,11,12,12,15,15,16,16,17,17,19,19],"right_children":[2,4,6,-1,8,10,12,14,16,18,-1,20,22,-1,-1,24,26,28,-1,30,-1,-1,-1,-1,-1,-1,-1,-1,-1,-1,-1],"split_conditions":[2.65E1,1.05E1,3.65E1,-2.7765416E-2,3.5E0,9.325E2,7.05E1,5.25E4,1.9995E3,3.35E1,-0E0,2.8E4,1.08E2,-1.6533956E-2,-0E0,1.272E3,5.5E0,1.18E2,-0E0,5E-1,-0E0,-0E0,2.2694988E-2,-0E0,2.8065438E-3,-0E0,-1.8484782E-3,-0E0,-2.79383E-3,1.1153917E-2,-0E0],"split_indices":[11,11,11,0,2,8,11,9,8,11,0,9,8,0,0,8,2,8,0,15,0,0,0,0,0,0,0,0,0,0,0],"split_type":[0,0,0,0,0,0,0,0,0,0,0,0,0,0,0,0,0,0,0,0,0,0,0,0,0,0,0,0,0,0,0],"sum_hessian":[7.304853E2,5.473511E2,1.8313425E2,4.030436E2,1.4430745E2,4.7375755E1,1.3575848E2,9.6148895E1,4.8158546E1,1.3709305E1,3.366645E1,7.392071E1,6.183778E1,9.4915535E1,1.2333602E0,3.555595E1,1.2602596E1,1.0462628E1,3.2466764E0,6.742529E1,6.495414E0,3.248385E0,5.8589397E1,1.3574713E1,2.1981237E1,2.706103E0,9.896493E0,1.2455862E0,9.217042E0,3.47148E1,3.271049E1],"tree_param":{"num_deleted":"0","num_feature":"20","num_nodes":"31","size_leaf_vector":"0"}},{"base_weights":[-7.2646904E-1,-7.4542564E-1,-0E0,-0E0,-7.515311E-1,-0E0,-2.7936792E-2,-7.723788E-2,-0E0],"categories":[],"categories_nodes":[],"categories_segments":[],"categories_sizes":[],"default_left":[1,1,1,0,0,0,1,0,0],"id":17,"left_children":[1,3,5,-1,-1,-1,7,-1,-1],"loss_changes":[3.8525085E0,3.9005737E0,1.3164723E-2,0E0,0E0,0E0,7.294368E-2,0E0,0E0],"parents":[2147483647,0,0,1,1,2,2,6,6],"right_children":[2,4,6,-1,-1,-1,8,-1,-1],"split_conditions":[6.5E0,7.5E-1,2.8E4,-0E0,-1.50306225E-2,-0E0,6.85E4,-1.5447576E-3,-0E0],"split_indices":[4,5,9,0,0,0,9,0,0],"split_type":[0,0,0,0,0,0,0,0,0],"sum_hessian":[7.2790436E2,6.9823596E2,2.9668365E1,4.4089055E0,6.938271E2,1.3800558E1,1.5867808E1,1.3433936E1,2.4338715E0],"tree_param":{"num_deleted":"0","num_feature":"20","num_nodes":"9","size_leaf_vector":"0"}},{"base_weights":[-7.1363974E-1,-9.450639E-1,-5.0036496E-1,-9.5510113E-1,-0E0,-2.9050666E-1,-1.0597773E0,-4.8060763E-1,-6.0067724E-2,-1.0873908E0,-0E0,-5.614462E-1,-0E0,-1.7833938E-1,-0E0,-0E0,-5.7479453E-1,-0E0,-2.8313023E-1,1.2609255E-1,-0E0],"categories":[],"categories_nodes":[],"categories_segments":[],"categories_sizes":[],"default_left":[1,1,1,0,0,1,1,1,1,0,0,1,0,1,1,0,0,0,0,0,0],"id":18,"left_children":[1,3,5,-1,-1,7,9,11,13,-1,-1,15,-1,17,19,-1,-1,-1,-1,-1,-1],"loss_changes":[2.0974152E1,3.732605E-1,3.351758E1,0E0,0E0,8.036865E0,3.6726227E0,1.5547409E0,2.3684547E0,0E0,0E0,1.2757607E0,0E0,2.127491E0,6.942799E-1,0E0,0E0,0E0,0E0,0E0,0E0],"parents":[2147483647,0,0,1,1,2,2,5,5,6,6,7,7,8,8,11,11,13,13,14,14],"right_children":[2,4,6,-1,-1,8,10,12,14,-1,-1,16,-1,18,20,-1,-1,-1,-1,-1,-1],"split_conditions":[1.5E0,7.5E0,2.9E1,-1.9102022E-2,-0E0,3.5E0,7.5E0,2.5315E3,2.5E0,-2.1747814E-2,-0E0,3.65E1,-0E0,5.5E0,4.5E0,-0E0,-1.149589E-2,-0E0,-5.6626042E-3,2.521851E-3,-0E0],"split_indices":[2,4,2,0,0,2,4,8,4,0,0,8,0,2,4,0,0,0,0,0,0],"split_type":[0,0,0,0,0,0,0,0,0,0,0,0,0,0,0,0,0,0,0,0,0],"sum_hessian":[7.2638153E2,3.2423532E2,4.0214618E2,3.1784454E2,6.3907804E0,3.0654422E2,9.560197E1,1.4360007E2,1.6294415E2,9.3864006E1,1.7379649E0,1.0989015E2,3.3709915E1,9.2066895E1,7.087725E1,1.2291659E0,1.0866099E2,2.9602512E1,6.2464386E1,4.2667236E1,2.821002E1],"tree_param":{"num_deleted":"0","num_feature":"20","num_nodes":"21","size_leaf_vector":"0"}},{"base_weights":[-7.020497E-1,-2.5928846E-1,-1.4790725E0,-0E0,-3.6452234E-1,-2.0317334E-1,5.831263E-2,-0E0,-3.8012058E-1,1.9910692E-3,-7.437159E-1,1.8849272E-1,-0E0,-3.8935906E-1,-0E0,-0E0,3.202609E-1,2.6195452E-1,-0E0,-3.9022076E-1,-0E0],"categories":[],"categories_nodes":[],"categories_segments":[],"categories_sizes":[],"default_left":[1,1,0,1,1,1,1,0,1,1,0,1,0,1,0,0,0,0,0,0,0],"id":19,"left_children":[1,3,-1,5,7,9,11,-1,13,15,-1,17,-1,19,-1,-1,-1,-1,-1,-1,-1],"loss_changes":[2.3190848E2,9.655653E0,0E0,3.201565E0,3.3283958E0,1.517557E1,1.6083874E0,0E0,1.2629395E0,2.5747292E0,0E0,1.282962E0,0E0,1.7707825E-2,0E0,0E0,0E0,0E0,0E0,0E0,0E0],"parents":[2147483647,0,0,1,1,3,3,4,4,5,5,6,6,8,8,9,9,11,11,13,13],"right_children":[2,4,-1,6,8,10,12,-1,14,16,-1,18,-1,20,-1,-1,-1,-1,-1,-1,-1],"split_conditions":[9.85E1,8.95E1,-2.9581448E-2,8.05E1,7.5E-1,7.95E1,1.56E4,-0E0,3.5E0,6.45E1,-1.4874318E-2,8.85E1,-0E0,6.015E4,-0E0,-0E0,6.405218E-3,5.2390904E-3,-0E0,-7.804415E-3,-0E0],"split_indices":[12,12,0,12,5,12,9,0,6,12,0,12,0,9,0,0,0,0,0,0,0],"split_type":[0,0,0,0,0,0,0,0,0,0,0,0,0,0,0,0,0,0,0,0,0],"sum_hessian":[7.2472614E2,4.7071042E2,2.540157E2,1.6037643E2,3.1033398E2,6.894439E1,9.1432045E1,1.9916592E0,3.0834235E2,3.7288006E1,3.165638E1,5.3115307E1,3.831674E1,3.0216736E2,6.174972E0,1.318364E1,2.4104368E1,4.5715878E1,7.399426E0,3.0094617E2,1.2211902E0],"tree_param":{"num_deleted":"0","num_feature":"20","num_nodes":"21","size_leaf_vector":"0"}},{"base_weights":[-6.903362E-1,-7.6660204E-1,-1.3458514E-1,-0E0,-7.7087694E-1,-1.7477225E-1,-0E0,-2.226971E-1,-0E0,-0E0,-2.4179254E-1,-2.578221E-1,-0E0],"categories":[],"categories_nodes":[],"categories_segments":[],"categories_sizes":[],"default_left":[1,1,1,0,0,1,0,1,0,0,1,0,0],"id":20,"left_children":[1,3,5,-1,-1,7,-1,9,-1,-1,11,-1,-1],"loss_changes":[2.1558014E1,2.765625E0,5.2237713E-1,0E0,0E0,9.313729E-1,0E0,4.9800754E-1,0E0,0E0,4.4520783E-1,0E0,0E0],"parents":[2147483647,0,0,1,1,2,2,5,5,7,7,10,10],"right_children":[2,4,6,-1,-1,8,-1,10,-1,-1,12,-1,-1],"split_conditions":[5E-1,2.5E-1,5E-1,-0E0,-1.5417539E-2,2.5E0,-0E0,7.5E-1,-0E0,-0E0,2.25E0,-5.1564416E-3,-0E0],"split_indices":[13,5,17,0,0,7,0,5,0,0,5,0,0],"split_type":[0,0,0,0,0,0,0,0,0,0,0,0,0],"sum_hessian":[7.226807E2,6.193185E2,1.0336222E2,2.206863E0,6.1711163E2,7.798772E1,2.5374504E1,6.642912E1,1.1558594E1,1.7115694E0,6.471755E1,6.3497528E1,1.2200255E0],"tree_param":{"num_deleted":"0","num_feature":"20","num_nodes":"13","size_leaf_vector":"0"}},{"base_weights":[-6.783508E-1],"categories":[],"categories_nodes":[],"categories_segments":[],"categories_sizes":[],"default_left":[0],"id":21,"left_children":[-1],"loss_changes":[0E0],"parents":[2147483647],"right_children":[-1],"split_conditions":[-1.35670155E-2],"split_indices":[0],"split_type":[0],"sum_hessian":[7.209777E2],"tree_param":{"num_deleted":"0","num_feature":"20","num_nodes":"1","size_leaf_vector":"0"}},{"base_weights":[-6.6634524E-1,-7.416126E-1,-1.182085E-1,-0E0,-7.45865E-1,-1.5752774E-1,-0E0,-0E0,-1.7264572E-1],"categories":[],"categories_nodes":[],"categories_segments":[],"categories_sizes":[],"default_left":[1,1,1,0,0,1,0,0,0],"id":22,"left_children":[1,3,5,-1,-1,7,-1,-1,-1],"loss_changes":[2.1032349E1,2.6774597E0,5.0058866E-1,0E0,0E0,3.4262943E-1,0E0,0E0,0E0],"parents":[2147483647,0,0,1,1,2,2,5,5],"right_children":[2,4,6,-1,-1,8,-1,-1,-1],"split_conditions":[5E-1,2.5E-1,5E-1,-0E0,-1.4917299E-2,7.5E-1,-0E0,-0E0,-3.4529143E-3],"split_indices":[13,5,17,0,0,5,0,0,0],"split_type":[0,0,0,0,0,0,0,0,0],"sum_hessian":[7.19323E2,6.161234E2,1.0319954E2,2.2038233E0,6.139196E2,7.78473E1,2.5352245E1,1.7090647E0,7.613823E1],"tree_param":{"num_deleted":"0","num_feature":"20","num_nodes":"9","size_leaf_vector":"0"}},{"base_weights":[-6.548829E-1,-1.1053654E0,6.070862E-1,-1.294759E0,-4.4006035E-1,-0E0,7.9733926E-1,-0E0,-4.6239388E-1,-0E0,8.542019E-1,-0E0,-5.8187264E-1,-1.5788925E-1,-0E0,-0E0,-6.223416E-1],"categories":[],"categories_nodes":[],"categories_segments":[],"categories_sizes":[],"default_left":[1,1,1,0,1,0,1,0,1,0,0,1,1,0,0,0,0],"id":23,"left_children":[1,3,5,-1,7,-1,9,-1,11,-1,-1,13,15,-1,-1,-1,-1],"loss_changes":[4.1415427E2,4.9586548E1,2.5953499E1,0E0,2.340742E0,0E0,6.5802536E0,0E0,3.358282E0,0E0,0E0,7.1949774E-1,1.9499722E0,0E0,0E0,0E0,0E0],"parents":[2147483647,0,0,1,1,2,2,4,4,6,6,8,8,11,11,12,12],"right_children":[2,4,6,-1,8,-1,10,-1,12,-1,-1,14,16,-1,-1,-1,-1],"split_conditions":[2.65E1,1.15E1,3.35E1,-2.589518E-2,7.5E-1,-0E0,9.05E1,-0E0,9.85E1,-0E0,1.7084038E-2,9.35E1,1.25E1,-3.157785E-3,-0E0,-0E0,-1.2446831E-2],"split_indices":[11,11,11,0,5,0,0,0,0,0,0,0,11,0,0,0,0],"split_type":[0,0,0,0,0,0,0,0,0,0,0,0,0,0,0,0,0],"sum_hessian":[7.175647E2,5.347311E2,1.8283362E2,4.0380292E2,1.3092819E2,3.643909E1,1.4639453E2,1.4885596E0,1.2943964E2,9.952184E0,1.3644235E2,3.814912E1,9.129052E1,2.7861864E1,1.0287256E1,6.5778127E0,8.471271E1],"tree_param":{"num_deleted":"0","num_feature":"20","num_nodes":"17","size_leaf_vector":"0"}},{"base_weights":[-6.446309E-1,-5.5120236E-1,-1.0453227E0,-6.2330043E-1,-3.060467E-1,-8.7673277E-1,-4.2123818E-1,-2.686078E-1,-6.91618E-1,-2.744458E-1,-0E0],"categories":[],"categories_nodes":[],"categories_segments":[],"categories_sizes":[],"default_left":[1,1,0,1,0,0,1,1,0,0,0],"id":24,"left_children":[1,3,-1,5,-1,-1,7,9,-1,-1,-1],"loss_changes":[1.0250458E1,1.168747E0,0E0,8.837402E0,0E0,0E0,1.1453705E0,3.1031036E-1,0E0,0E0,0E0],"parents":[2147483647,0,0,1,1,3,3,6,6,7,7],"right_children":[2,4,-1,6,-1,-1,8,10,-1,-1,-1],"split_conditions":[3.5E0,5E-1,-2.0906452E-2,5E-1,-6.1209337E-3,-1.7534655E-2,2.5E0,5E-1,-1.38323605E-2,-5.488916E-3,-0E0],"split_indices":[10,17,0,18,0,0,10,16,0,0,0],"split_type":[0,0,0,0,0,0,0,0,0,0,0],"sum_hessian":[7.1467175E2,6.017056E2,1.1296611E2,4.322515E2,1.6945413E2,1.6831602E2,2.6393546E2,1.9361664E2,7.031883E1,1.8954482E2,4.071827E0],"tree_param":{"num_deleted":"0","num_feature":"20","num_nodes":"11","size_leaf_vector":"0"}},{"base_weights":[-6.3452625E-1,-1.9939697E-1,-1.4103622E0,-6.6024375E-1,1.779581E-1,-0E0,-7.480901E-1,6.1854416E-1,-1.0346054E-2,-7.59239E-1,-0E0,-0E0,6.412227E-1,-1.4692461E-1,5.895846E-2,-7.7402055E-1,-0E0,7.6438946E-1,-0E0,-2.0585234E-1,-0E0,1.2146077E-1,-0E0],"categories":[],"categories_nodes":[],"categories_segments":[],"categories_sizes":[],"default_left":[1,1,0,1,1,0,1,1,1,1,0,0,1,1,1,0,0,0,0,0,0,0,0],"id":25,"left_children":[1,3,-1,5,7,-1,9,11,13,15,-1,-1,17,19,21,-1,-1,-1,-1,-1,-1,-1,-1],"loss_changes":[2.2462955E2,8.611954E1,0E0,1.2672859E1,2.645693E1,0E0,2.178238E0,1.8603287E0,2.3751788E0,2.671814E-2,0E0,0E0,1.4484406E0,9.745085E-1,5.5875623E-1,0E0,0E0,0E0,0E0,0E0,0E0,0E0,0E0],"parents":[2147483647,0,0,1,1,3,3,4,4,6,6,7,7,8,8,9,9,12,12,13,13,14,14],"right_children":[2,4,-1,6,8,-1,10,12,14,16,-1,-1,18,20,22,-1,-1,-1,-1,-1,-1,-1,-1],"split_conditions":[9.85E1,1.325E0,-2.8207244E-2,7.95E1,9.15E1,-0E0,6.015E4,4.45E3,3.955E0,1.255E0,-0E0,-0E0,1.675E4,1.97E4,2.875E4,-1.548041E-2,-0E0,1.5287789E-2,-0E0,-4.117047E-3,-0E0,2.4292155E-3,-0E0],"split_indices":[12,14,0,12,12,0,9,9,14,14,0,0,9,9,9,0,0,0,0,0,0,0,0],"split_type":[0,0,0,0,0,0,0,0,0,0,0,0,0,0,0,0,0,0,0,0,0,0,0],"sum_hessian":[7.129105E2,4.6580762E2,2.471029E2,2.212975E2,2.4451012E2,2.6497639E1,1.9479987E2,8.842883E1,1.5608128E2,1.9287044E2,1.9294249E0,1.6894034E0,8.673943E1,1.0073444E2,5.534684E1,1.8558104E2,7.289405E0,6.3221333E1,2.3518099E1,7.382288E1,2.6911558E1,5.0151485E1,5.195352E0],"tree_param":{"num_deleted":"0","num_feature":"20","num_nodes":"23","size_leaf_vector":"0"}},{"base_weights":[-6.241316E-1,-2.147539E-1,-1.4325463E0,-6.534073E-1,1.3126875E-1,-0E0,-7.3902196E-1,6.0740244E-1,-6.261241E-2,-8.102754E-1,-6.349149E-2,-0E0,6.2100965E-1,-2.106962E-1,3.162576E-2,-0E0,-2.9710084E-1,-0E0,6.2836844E-1,-0E0,-2.2547302E-1,-0E0,1.7806658E-1],"categories":[],"categories_nodes":[],"categories_segments":[],"categories_sizes":[],"default_left":[1,1,0,1,1,0,1,1,1,0,1,0,1,1,1,0,0,0,0,0,0,0,0],"id":26,"left_children":[1,3,-1,5,7,-1,9,11,13,-1,15,-1,17,19,21,-1,-1,-1,-1,-1,-1,-1,-1],"loss_changes":[2.1863483E2,7.84064E1,0E0,1.2385017E1,2.9239557E1,0E0,7.792969E-1,4.731369E-1,4.1535244E0,0E0,1.576993E0,0E0,2.1719742E-1,6.1472416E-1,1.6547163E0,0E0,0E0,0E0,0E0,0E0,0E0,0E0,0E0],"parents":[2147483647,0,0,1,1,3,3,4,4,6,6,7,7,8,8,10,10,12,12,13,13,14,14],"right_children":[2,4,-1,6,8,-1,10,12,14,-1,16,-1,18,20,22,-1,-1,-1,-1,-1,-1,-1,-1],"split_conditions":[9.95E1,1.325E0,-2.8650925E-2,7.95E1,9.15E1,-0E0,1.045E0,7.35E1,3.84E0,-1.6205506E-2,9.25E1,-0E0,1.34E0,1.345E0,5E-1,-0E0,-5.942017E-3,-0E0,1.2567368E-2,-0E0,-4.50946E-3,-0E0,3.5613317E-3],"split_indices":[12,14,0,12,12,0,14,12,14,0,12,0,14,14,1,0,0,0,0,0,0,0,0],"split_type":[0,0,0,0,0,0,0,0,0,0,0,0,0,0,0,0,0,0,0,0,0,0,0],"sum_hessian":[7.103389E2,4.8060046E2,2.2973846E2,2.2428526E2,2.5631522E2,2.6497639E1,1.9778761E2,8.84774E1,1.6783783E2,1.6534479E2,3.2442833E1,2.651359E0,8.582604E1,1.06058365E2,6.177946E1,1.4049745E1,1.8393087E1,1.471635E0,8.435441E1,1.4809378E0,1.0457742E2,8.612576E0,5.3166885E1],"tree_param":{"num_deleted":"0","num_feature":"20","num_nodes":"23","size_leaf_vector":"0"}},{"base_weights":[-6.1437976E-1,-1.097055E0,-0E0,-0E0,-1.1016865E0,-2.4789463E-1,1.6308641E-1,-3.3977535E-1,-0E0,-0E0,3.9648214E-1,-3.6254898E-1,-0E0,-6.388277E-2,4.5984607E-2,4.6473065E-1,-0E0,-0E0,-1.5582453E-1,9.985615E-2,-0E0],"categories":[],"categories_nodes":[],"categories_segments":[],"categories_sizes":[],"default_left":[1,1,1,0,0,1,1,1,0,1,1,0,0,1,1,0,0,0,0,0,0],"id":27,"left_children":[1,3,5,-1,-1,7,9,11,-1,13,15,-1,-1,17,19,-1,-1,-1,-1,-1,-1],"loss_changes":[2.0262393E2,1.6450806E0,1.3522642E1,0E0,0E0,3.0028248E0,6.98734E0,1.0300798E0,0E0,3.1809816E-1,3.4119415E0,0E0,0E0,6.9275546E-1,3.9602908E-1,0E0,0E0,0E0,0E0,0E0,0E0],"parents":[2147483647,0,0,1,1,2,2,5,5,6,6,7,7,9,9,10,10,13,13,14,14],"right_children":[2,4,6,-1,-1,8,10,12,-1,14,16,-1,-1,18,20,-1,-1,-1,-1,-1,-1],"split_conditions":[1.045E0,2.5E-1,2.315E0,-0E0,-2.2033729E-2,3.5E0,2.5E0,2.21E0,-0E0,3.835E0,2.3E1,-7.2509795E-3,-0E0,2.625E0,9.93E0,9.294612E-3,-0E0,-0E0,-3.1164906E-3,1.997123E-3,-0E0],"split_indices":[14,5,14,0,0,2,2,14,0,14,2,0,0,14,14,0,0,0,0,0,0],"split_type":[0,0,0,0,0,0,0,0,0,0,0,0,0,0,0,0,0,0,0,0,0],"sum_hessian":[7.076986E2,3.8962692E2,3.180717E2,1.9221352E0,3.8770477E2,1.4272975E2,1.7534192E2,1.0151666E2,4.1213093E1,1.0205644E2,7.328548E1,9.687871E1,4.6379566E0,4.8868225E1,5.3188217E1,6.886691E1,4.4185653E0,1.2956338E1,3.591189E1,5.020868E1,2.9795358E0],"tree_param":{"num_deleted":"0","num_feature":"20","num_nodes":"21","size_leaf_vector":"0"}},{"base_weights":[-6.044352E-1,-1.0455726E0,6.019746E-1,-1.2319642E0,-4.0103287E-1,-0E0,7.860459E-1,-4.338881E-1,-0E0,4.1515067E-1,1.1185567E0,-4.5394382E-1,-0E0,4.3533173E-1,-0E0,-4.7839463E-1,-0E0],"categories":[],"categories_nodes":[],"categories_segments":[],"categories_sizes":[],"default_left":[1,1,1,0,1,0,1,1,0,1,0,1,0,0,0,0,0],"id":28,"left_children":[1,3,5,-1,7,-1,9,11,-1,13,-1,15,-1,-1,-1,-1,-1],"loss_changes":[3.8087207E2,4.6068726E1,2.4456627E1,0E0,1.7938347E0,0E0,2.3626785E0,1.565197E0,0E0,1.0883217E0,0E0,9.8797417E-1,0E0,0E0,0E0,0E0,0E0],"parents":[2147483647,0,0,1,1,2,2,4,4,6,6,7,7,9,9,11,11],"right_children":[2,4,6,-1,8,-1,10,12,-1,14,-1,16,-1,-1,-1,-1,-1],"split_conditions":[2.65E1,1.15E1,3.35E1,-2.4639284E-2,2.5E0,-0E0,7.05E1,5E-1,-0E0,4.5E0,2.2371134E-2,3.225E4,-0E0,8.706635E-3,-0E0,-9.567892E-3,-0E0],"split_indices":[11,11,11,0,6,0,11,19,0,7,0,9,0,0,0,0,0],"split_type":[0,0,0,0,0,0,0,0,0,0,0,0,0,0,0,0,0],"sum_hessian":[7.051481E2,5.225091E2,1.8263899E2,3.9256003E2,1.2994902E2,3.635432E1,1.4628467E2,1.20396774E2,9.552248E0,8.443046E1,6.1854218E1,1.175025E2,2.8942735E0,8.243602E1,1.9944377E0,1.1001562E2,7.486886E0],"tree_param":{"num_deleted":"0","num_feature":"20","num_nodes":"17","size_leaf_vector":"0"}},{"base_weights":[-5.9494555E-1,-1.7657825E-1,-1.3549752E0,-0E0,-3.3765823E-1,1.1918901E-1,-3.1630275E-1,-3.5823742E-1,-0E0,2.1136048E-1,-0E0,-3.8831452E-1,-0E0,-3.6231226E-1,-0E0,-0E0,2.4887335E-1,-4.3761718E-1,-0E0],"categories":[],"categories_nodes":[],"categories_segments":[],"categories_sizes":[],"default_left":[1,1,0,1,1,1,1,1,0,1,0,1,0,0,0,0,0,0,0],"id":29,"left_children":[1,3,-1,5,7,9,11,13,-1,15,-1,17,-1,-1,-1,-1,-1,-1,-1],"loss_changes":[2.0797229E2,1.14105625E1,0E0,1.0012029E1,1.8329525E0,2.0392504E0,2.152894E0,3.7584305E-2,0E0,1.2515106E0,0E0,1.6191511E0,0E0,0E0,0E0,0E0,0E0,0E0,0E0],"parents":[2147483647,0,0,1,1,3,3,4,4,5,5,6,6,7,7,9,9,11,11],"right_children":[2,4,-1,6,8,10,12,14,-1,16,-1,18,-1,-1,-1,-1,-1,-1,-1],"split_conditions":[9.85E1,9.25E1,-2.7099503E-2,2.5E0,6.5E0,8.85E1,9.05E1,2.5E0,-0E0,6.45E1,-0E0,5.5E0,-0E0,-7.246245E-3,-0E0,-0E0,4.977467E-3,-8.752343E-3,-0E0],"split_indices":[12,12,0,10,4,12,12,6,0,12,0,4,0,0,0,0,0,0,0],"split_type":[0,0,0,0,0,0,0,0,0,0,0,0,0,0,0,0,0,0,0],"sum_hessian":[7.019783E2,4.6203525E2,2.3994304E2,2.3632489E2,2.2571037E2,1.6013159E2,7.619329E1,2.1469414E2,1.1016238E1,9.588771E1,6.424389E1,6.449508E1,1.1698207E1,2.10156E2,4.538132E0,6.800765E0,8.9086945E1,5.9023533E1,5.471548E0],"tree_param":{"num_deleted":"0","num_feature":"20","num_nodes":"19","size_leaf_vector":"0"}}]},"name":"gbtree"},"learner_model_param":{"base_score":"5E-1","boost_from_average":"1","num_class":"0","num_feature":"20","num_target":"1"},"objective":{"name":"binary:logistic","reg_loss_param":{"scale_pos_weight":"1"}}},"version":[1,7,5]}